<?xml version="1.0"?>
<opencv_storage>
<cascade>
  <stageType>BOOST</stageType>
  <featureType>HAAR</featureType>
  <height>60</height>
  <width>30</width>
  <stageParams>
    <boostType>GAB</boostType>
    <minHitRate>9.9500000476837158e-01</minHitRate>
    <maxFalseAlarm>5.0000000000000000e-01</maxFalseAlarm>
    <weightTrimRate>9.4999998807907104e-01</weightTrimRate>
    <maxDepth>1</maxDepth>
    <maxWeakCount>100</maxWeakCount></stageParams>
  <featureParams>
    <maxCatCount>0</maxCatCount>
    <featSize>1</featSize>
    <mode>BASIC</mode></featureParams>
  <stageNum>15</stageNum>
  <stages>
    <!-- stage 0 -->
    <_>
      <maxWeakCount>4</maxWeakCount>
      <stageThreshold>-7.4851143360137939e-01</stageThreshold>
      <weakClassifiers>
        <_>
          <internalNodes>
            0 -1 42 -8.5584349930286407e-02</internalNodes>
          <leafValues>
            3.1182795763015747e-01 -8.5551333427429199e-01</leafValues></_>
        <_>
          <internalNodes>
            0 -1 69 -4.2795443732757121e-05</internalNodes>
          <leafValues>
            4.7918102145195007e-01 -5.2930498123168945e-01</leafValues></_>
        <_>
          <internalNodes>
            0 -1 31 -4.6745032886974514e-04</internalNodes>
          <leafValues>
            -9.3952471017837524e-01 2.2650523483753204e-01</leafValues></_>
        <_>
          <internalNodes>
            0 -1 39 3.9161197841167450e-02</internalNodes>
          <leafValues>
            -5.7938969135284424e-01 4.0980157256126404e-01</leafValues></_></weakClassifiers></_>
    <!-- stage 1 -->
    <_>
      <maxWeakCount>4</maxWeakCount>
      <stageThreshold>-6.2901532649993896e-01</stageThreshold>
      <weakClassifiers>
        <_>
          <internalNodes>
            0 -1 84 3.5237758420407772e-03</internalNodes>
          <leafValues>
            -6.9934642314910889e-01 3.2203391194343567e-01</leafValues></_>
        <_>
          <internalNodes>
            0 -1 22 -1.8709813011810184e-03</internalNodes>
          <leafValues>
            2.6366427540779114e-01 -8.6654603481292725e-01</leafValues></_>
        <_>
          <internalNodes>
            0 -1 67 -5.9334281831979752e-03</internalNodes>
          <leafValues>
            7.0119810104370117e-01 -4.0581774711608887e-01</leafValues></_>
        <_>
          <internalNodes>
            0 -1 20 -5.7434174232184887e-04</internalNodes>
          <leafValues>
            -8.0889576673507690e-01 3.5163068771362305e-01</leafValues></_></weakClassifiers></_>
    <!-- stage 2 -->
    <_>
      <maxWeakCount>5</maxWeakCount>
      <stageThreshold>-5.2218896150588989e-01</stageThreshold>
      <weakClassifiers>
        <_>
          <internalNodes>
            0 -1 68 5.8456130325794220e-02</internalNodes>
          <leafValues>
            -4.8214286565780640e-01 8.2978725433349609e-01</leafValues></_>
        <_>
          <internalNodes>
            0 -1 6 1.4007493853569031e-02</internalNodes>
          <leafValues>
            -5.6815564632415771e-01 4.4363120198249817e-01</leafValues></_>
        <_>
          <internalNodes>
            0 -1 15 -6.4094811677932739e-02</internalNodes>
          <leafValues>
            5.4762858152389526e-01 -4.2785209417343140e-01</leafValues></_>
        <_>
          <internalNodes>
            0 -1 46 -9.8040983080863953e-02</internalNodes>
          <leafValues>
            8.8440775871276855e-01 -2.6988014578819275e-01</leafValues></_>
        <_>
          <internalNodes>
            0 -1 1 9.1067852918058634e-04</internalNodes>
          <leafValues>
            3.0136471986770630e-01 -7.6142573356628418e-01</leafValues></_></weakClassifiers></_>
    <!-- stage 3 -->
    <_>
      <maxWeakCount>7</maxWeakCount>
      <stageThreshold>-7.6136016845703125e-01</stageThreshold>
      <weakClassifiers>
        <_>
          <internalNodes>
            0 -1 12 4.5517622493207455e-04</internalNodes>
          <leafValues>
            1.0526315867900848e-01 -8.7000000476837158e-01</leafValues></_>
        <_>
          <internalNodes>
            0 -1 58 -3.3902846276760101e-02</internalNodes>
          <leafValues>
            7.8714764118194580e-01 -3.3749771118164063e-01</leafValues></_>
        <_>
          <internalNodes>
            0 -1 55 -3.1329862773418427e-02</internalNodes>
          <leafValues>
            6.6908532381057739e-01 -3.3542734384536743e-01</leafValues></_>
        <_>
          <internalNodes>
            0 -1 90 1.7467524856328964e-02</internalNodes>
          <leafValues>
            -4.5851078629493713e-01 4.8074850440025330e-01</leafValues></_>
        <_>
          <internalNodes>
            0 -1 63 -2.0621955627575517e-04</internalNodes>
          <leafValues>
            -8.4472900629043579e-01 3.0121958255767822e-01</leafValues></_>
        <_>
          <internalNodes>
            0 -1 79 -3.4595295786857605e-02</internalNodes>
          <leafValues>
            7.9164344072341919e-01 -3.0010899901390076e-01</leafValues></_>
        <_>
          <internalNodes>
            0 -1 37 -9.6094736363738775e-04</internalNodes>
          <leafValues>
            4.7039121389389038e-01 -4.5935529470443726e-01</leafValues></_></weakClassifiers></_>
    <!-- stage 4 -->
    <_>
      <maxWeakCount>6</maxWeakCount>
      <stageThreshold>-6.8201088905334473e-01</stageThreshold>
      <weakClassifiers>
        <_>
          <internalNodes>
            0 -1 66 -1.4827187173068523e-02</internalNodes>
          <leafValues>
            6.3793104887008667e-01 -4.9765259027481079e-01</leafValues></_>
        <_>
          <internalNodes>
            0 -1 56 7.0259155472740531e-04</internalNodes>
          <leafValues>
            -5.8227950334548950e-01 3.6482957005500793e-01</leafValues></_>
        <_>
          <internalNodes>
            0 -1 5 -1.0799649357795715e-01</internalNodes>
          <leafValues>
            7.5299751758575439e-01 -2.5087171792984009e-01</leafValues></_>
        <_>
          <internalNodes>
            0 -1 53 1.4296540059149265e-02</internalNodes>
          <leafValues>
            -2.8755468130111694e-01 6.9099074602127075e-01</leafValues></_>
        <_>
          <internalNodes>
            0 -1 50 -5.0531471060821787e-05</internalNodes>
          <leafValues>
            4.3111085891723633e-01 -4.4094926118850708e-01</leafValues></_>
        <_>
          <internalNodes>
            0 -1 21 -1.0152265895158052e-04</internalNodes>
          <leafValues>
            4.3442586064338684e-01 -4.4187235832214355e-01</leafValues></_></weakClassifiers></_>
    <!-- stage 5 -->
    <_>
      <maxWeakCount>6</maxWeakCount>
      <stageThreshold>-8.1100517511367798e-01</stageThreshold>
      <weakClassifiers>
        <_>
          <internalNodes>
            0 -1 51 1.2090595439076424e-02</internalNodes>
          <leafValues>
            -4.5372459292411804e-01 6.3636362552642822e-01</leafValues></_>
        <_>
          <internalNodes>
            0 -1 4 9.4558726996183395e-03</internalNodes>
          <leafValues>
            2.3324301838874817e-01 -8.6943441629409790e-01</leafValues></_>
        <_>
          <internalNodes>
            0 -1 3 -3.3447070745751262e-04</internalNodes>
          <leafValues>
            3.2709863781929016e-01 -5.4052215814590454e-01</leafValues></_>
        <_>
          <internalNodes>
            0 -1 29 -3.0404706485569477e-03</internalNodes>
          <leafValues>
            5.4477703571319580e-01 -3.5818544030189514e-01</leafValues></_>
        <_>
          <internalNodes>
            0 -1 61 -3.2666787505149841e-02</internalNodes>
          <leafValues>
            6.9269758462905884e-01 -2.8845033049583435e-01</leafValues></_>
        <_>
          <internalNodes>
            0 -1 44 -6.7256903275847435e-04</internalNodes>
          <leafValues>
            6.3878512382507324e-01 -2.7098646759986877e-01</leafValues></_></weakClassifiers></_>
    <!-- stage 6 -->
    <_>
      <maxWeakCount>6</maxWeakCount>
      <stageThreshold>-7.2226810455322266e-01</stageThreshold>
      <weakClassifiers>
        <_>
          <internalNodes>
            0 -1 80 -1.1237344145774841e-01</internalNodes>
          <leafValues>
            7.7215188741683960e-01 -4.2980560660362244e-01</leafValues></_>
        <_>
          <internalNodes>
            0 -1 10 -6.4671994186937809e-04</internalNodes>
          <leafValues>
            -9.1144633293151855e-01 1.8751269578933716e-01</leafValues></_>
        <_>
          <internalNodes>
            0 -1 85 -6.1903808265924454e-02</internalNodes>
          <leafValues>
            9.2881649732589722e-01 -2.0780348777770996e-01</leafValues></_>
        <_>
          <internalNodes>
            0 -1 14 -2.9108294984325767e-04</internalNodes>
          <leafValues>
            -7.1232765913009644e-01 2.5338900089263916e-01</leafValues></_>
        <_>
          <internalNodes>
            0 -1 97 -2.3446269915439188e-04</internalNodes>
          <leafValues>
            -6.1167025566101074e-01 2.5979709625244141e-01</leafValues></_>
        <_>
          <internalNodes>
            0 -1 98 5.2286919526522979e-05</internalNodes>
          <leafValues>
            -6.1519849300384521e-01 3.1360125541687012e-01</leafValues></_></weakClassifiers></_>
    <!-- stage 7 -->
    <_>
      <maxWeakCount>8</maxWeakCount>
      <stageThreshold>-9.4890564680099487e-01</stageThreshold>
      <weakClassifiers>
        <_>
          <internalNodes>
            0 -1 24 4.0812145918607712e-02</internalNodes>
          <leafValues>
            -4.3929359316825867e-01 6.8539327383041382e-01</leafValues></_>
        <_>
          <internalNodes>
            0 -1 16 -2.0134035366936587e-05</internalNodes>
          <leafValues>
            2.6025900244712830e-01 -5.5796164274215698e-01</leafValues></_>
        <_>
          <internalNodes>
            0 -1 57 -3.8984144339337945e-04</internalNodes>
          <leafValues>
            -8.8764953613281250e-01 1.7214244604110718e-01</leafValues></_>
        <_>
          <internalNodes>
            0 -1 54 -7.6046288013458252e-02</internalNodes>
          <leafValues>
            5.1635867357254028e-01 -3.3287107944488525e-01</leafValues></_>
        <_>
          <internalNodes>
            0 -1 34 5.9459626208990812e-04</internalNodes>
          <leafValues>
            -4.9866792559623718e-01 3.2921975851058960e-01</leafValues></_>
        <_>
          <internalNodes>
            0 -1 36 -5.9313558042049408e-02</internalNodes>
          <leafValues>
            3.9559245109558105e-01 -4.4233095645904541e-01</leafValues></_>
        <_>
          <internalNodes>
            0 -1 40 1.7283806810155511e-03</internalNodes>
          <leafValues>
            2.4961872398853302e-01 -7.2191512584686279e-01</leafValues></_>
        <_>
          <internalNodes>
            0 -1 47 -1.3920909259468317e-03</internalNodes>
          <leafValues>
            -7.2684675455093384e-01 2.0618110895156860e-01</leafValues></_></weakClassifiers></_>
    <!-- stage 8 -->
    <_>
      <maxWeakCount>8</maxWeakCount>
      <stageThreshold>-8.6001759767532349e-01</stageThreshold>
      <weakClassifiers>
        <_>
          <internalNodes>
            0 -1 75 5.3092241287231445e-02</internalNodes>
          <leafValues>
            -4.2795699834823608e-01 7.9220777750015259e-01</leafValues></_>
        <_>
          <internalNodes>
            0 -1 0 -3.3650010824203491e-01</internalNodes>
          <leafValues>
            -8.8214576244354248e-01 1.9209715723991394e-01</leafValues></_>
        <_>
          <internalNodes>
            0 -1 7 4.3521262705326080e-03</internalNodes>
          <leafValues>
            -6.0182225704193115e-01 2.1838301420211792e-01</leafValues></_>
        <_>
          <internalNodes>
            0 -1 52 -3.4312834031879902e-04</internalNodes>
          <leafValues>
            3.6672264337539673e-01 -4.5025992393493652e-01</leafValues></_>
        <_>
          <internalNodes>
            0 -1 8 -8.4255822002887726e-05</internalNodes>
          <leafValues>
            3.0299830436706543e-01 -4.4005113840103149e-01</leafValues></_>
        <_>
          <internalNodes>
            0 -1 95 5.1129888743162155e-04</internalNodes>
          <leafValues>
            1.8607033789157867e-01 -8.4264069795608521e-01</leafValues></_>
        <_>
          <internalNodes>
            0 -1 72 -2.9219640418887138e-03</internalNodes>
          <leafValues>
            4.0421065688133240e-01 -3.5087117552757263e-01</leafValues></_>
        <_>
          <internalNodes>
            0 -1 70 4.6013677492737770e-03</internalNodes>
          <leafValues>
            -2.7321788668632507e-01 6.0504353046417236e-01</leafValues></_></weakClassifiers></_>
    <!-- stage 9 -->
    <_>
      <maxWeakCount>6</maxWeakCount>
      <stageThreshold>-6.9443929195404053e-01</stageThreshold>
      <weakClassifiers>
        <_>
          <internalNodes>
            0 -1 49 -5.2218459546566010e-02</internalNodes>
          <leafValues>
            5.0495052337646484e-01 -4.2857143282890320e-01</leafValues></_>
        <_>
          <internalNodes>
            0 -1 93 -8.1002409569919109e-04</internalNodes>
          <leafValues>
            -8.2869970798492432e-01 1.7546820640563965e-01</leafValues></_>
        <_>
          <internalNodes>
            0 -1 32 3.8189929910004139e-04</internalNodes>
          <leafValues>
            1.3447824120521545e-01 -8.9715409278869629e-01</leafValues></_>
        <_>
          <internalNodes>
            0 -1 59 -5.3629208356142044e-02</internalNodes>
          <leafValues>
            7.1876269578933716e-01 -2.3169076442718506e-01</leafValues></_>
        <_>
          <internalNodes>
            0 -1 102 2.8945512603968382e-03</internalNodes>
          <leafValues>
            1.5997992455959320e-01 -1.</leafValues></_>
        <_>
          <internalNodes>
            0 -1 77 -2.7242067735642195e-03</internalNodes>
          <leafValues>
            5.2752882242202759e-01 -3.0997291207313538e-01</leafValues></_></weakClassifiers></_>
    <!-- stage 10 -->
    <_>
      <maxWeakCount>8</maxWeakCount>
      <stageThreshold>-9.5508420467376709e-01</stageThreshold>
      <weakClassifiers>
        <_>
          <internalNodes>
            0 -1 76 6.0715340077877045e-02</internalNodes>
          <leafValues>
            -4.4071587920188904e-01 6.2105262279510498e-01</leafValues></_>
        <_>
          <internalNodes>
            0 -1 48 2.5957159232348204e-04</internalNodes>
          <leafValues>
            -5.0502842664718628e-01 2.6529586315155029e-01</leafValues></_>
        <_>
          <internalNodes>
            0 -1 88 1.1498721316456795e-02</internalNodes>
          <leafValues>
            -2.9634416103363037e-01 4.5057612657546997e-01</leafValues></_>
        <_>
          <internalNodes>
            0 -1 92 -1.4470965834334493e-03</internalNodes>
          <leafValues>
            4.7458487749099731e-01 -2.8202614188194275e-01</leafValues></_>
        <_>
          <internalNodes>
            0 -1 35 4.4299410656094551e-03</internalNodes>
          <leafValues>
            1.4234448969364166e-01 -9.7813737392425537e-01</leafValues></_>
        <_>
          <internalNodes>
            0 -1 62 -3.2273016404360533e-04</internalNodes>
          <leafValues>
            -7.2653329372406006e-01 1.6415494680404663e-01</leafValues></_>
        <_>
          <internalNodes>
            0 -1 2 9.1535344719886780e-02</internalNodes>
          <leafValues>
            1.4701549708843231e-01 -8.1101721525192261e-01</leafValues></_>
        <_>
          <internalNodes>
            0 -1 25 -5.2427490118134301e-06</internalNodes>
          <leafValues>
            2.3587946593761444e-01 -5.1650500297546387e-01</leafValues></_></weakClassifiers></_>
    <!-- stage 11 -->
    <_>
      <maxWeakCount>7</maxWeakCount>
      <stageThreshold>-8.8063275814056396e-01</stageThreshold>
      <weakClassifiers>
        <_>
          <internalNodes>
            0 -1 38 -6.8807832896709442e-02</internalNodes>
          <leafValues>
            8.2352942228317261e-01 -4.0928271412849426e-01</leafValues></_>
        <_>
          <internalNodes>
            0 -1 9 1.4561591669917107e-03</internalNodes>
          <leafValues>
            -5.5899238586425781e-01 2.4422159790992737e-01</leafValues></_>
        <_>
          <internalNodes>
            0 -1 82 -1.5807297080755234e-02</internalNodes>
          <leafValues>
            5.6321704387664795e-01 -3.1782984733581543e-01</leafValues></_>
        <_>
          <internalNodes>
            0 -1 11 9.1238634195178747e-04</internalNodes>
          <leafValues>
            -4.1385477781295776e-01 4.0508416295051575e-01</leafValues></_>
        <_>
          <internalNodes>
            0 -1 30 1.9293790683150291e-03</internalNodes>
          <leafValues>
            2.3634338378906250e-01 -7.1627801656723022e-01</leafValues></_>
        <_>
          <internalNodes>
            0 -1 94 5.9105914260726422e-05</internalNodes>
          <leafValues>
            -4.1383948922157288e-01 3.4891265630722046e-01</leafValues></_>
        <_>
          <internalNodes>
            0 -1 96 5.5462226737290621e-04</internalNodes>
          <leafValues>
            -5.2387756109237671e-01 3.2729154825210571e-01</leafValues></_></weakClassifiers></_>
    <!-- stage 12 -->
    <_>
      <maxWeakCount>8</maxWeakCount>
      <stageThreshold>-8.8756811618804932e-01</stageThreshold>
      <weakClassifiers>
        <_>
          <internalNodes>
            0 -1 81 7.4702665209770203e-02</internalNodes>
          <leafValues>
            -3.7832310795783997e-01 8.8679248094558716e-01</leafValues></_>
        <_>
          <internalNodes>
            0 -1 43 2.1547426003962755e-03</internalNodes>
          <leafValues>
            1.3604839146137238e-01 -7.6608365774154663e-01</leafValues></_>
        <_>
          <internalNodes>
            0 -1 100 -3.8012795266695321e-04</internalNodes>
          <leafValues>
            -7.8171569108963013e-01 1.7577834427356720e-01</leafValues></_>
        <_>
          <internalNodes>
            0 -1 71 -3.6983646452426910e-02</internalNodes>
          <leafValues>
            6.1469119787216187e-01 -2.3158842325210571e-01</leafValues></_>
        <_>
          <internalNodes>
            0 -1 87 2.7885654708370566e-04</internalNodes>
          <leafValues>
            -2.4388469755649567e-01 5.0241702795028687e-01</leafValues></_>
        <_>
          <internalNodes>
            0 -1 101 7.4881687760353088e-04</internalNodes>
          <leafValues>
            2.0669198036193848e-01 -7.9020553827285767e-01</leafValues></_>
        <_>
          <internalNodes>
            0 -1 27 2.6524554938077927e-02</internalNodes>
          <leafValues>
            -2.0749214291572571e-01 8.5902696847915649e-01</leafValues></_>
        <_>
          <internalNodes>
            0 -1 74 5.8676995104178786e-04</internalNodes>
          <leafValues>
            -1.8896812200546265e-01 5.5867558717727661e-01</leafValues></_></weakClassifiers></_>
    <!-- stage 13 -->
    <_>
      <maxWeakCount>11</maxWeakCount>
      <stageThreshold>-1.0183798074722290e+00</stageThreshold>
      <weakClassifiers>
        <_>
          <internalNodes>
            0 -1 60 4.0354464203119278e-02</internalNodes>
          <leafValues>
            -3.8429751992225647e-01 8.2758623361587524e-01</leafValues></_>
        <_>
          <internalNodes>
            0 -1 26 2.9942121356725693e-02</internalNodes>
          <leafValues>
            -2.5899317860603333e-01 6.0412079095840454e-01</leafValues></_>
        <_>
          <internalNodes>
            0 -1 13 2.1419570839498192e-04</internalNodes>
          <leafValues>
            2.2177316248416901e-01 -8.3846247196197510e-01</leafValues></_>
        <_>
          <internalNodes>
            0 -1 17 1.4512695372104645e-02</internalNodes>
          <leafValues>
            -2.4330177903175354e-01 4.8676618933677673e-01</leafValues></_>
        <_>
          <internalNodes>
            0 -1 41 -1.2427169713191688e-04</internalNodes>
          <leafValues>
            2.9850646853446960e-01 -3.8673752546310425e-01</leafValues></_>
        <_>
          <internalNodes>
            0 -1 23 3.4918100573122501e-04</internalNodes>
          <leafValues>
            1.8667733669281006e-01 -7.2263938188552856e-01</leafValues></_>
        <_>
          <internalNodes>
            0 -1 73 1.2901057489216328e-03</internalNodes>
          <leafValues>
            1.0785444825887680e-01 -9.2135161161422729e-01</leafValues></_>
        <_>
          <internalNodes>
            0 -1 33 -6.2150845769792795e-04</internalNodes>
          <leafValues>
            3.2586404681205750e-01 -3.7475267052650452e-01</leafValues></_>
        <_>
          <internalNodes>
            0 -1 18 7.9803885892033577e-03</internalNodes>
          <leafValues>
            -2.5267091393470764e-01 5.1448488235473633e-01</leafValues></_>
        <_>
          <internalNodes>
            0 -1 91 5.7647197536425665e-05</internalNodes>
          <leafValues>
            -3.2461985945701599e-01 4.1453933715820313e-01</leafValues></_>
        <_>
          <internalNodes>
            0 -1 99 -1.3005922664888203e-04</internalNodes>
          <leafValues>
            -7.2462332248687744e-01 1.8985234200954437e-01</leafValues></_></weakClassifiers></_>
    <!-- stage 14 -->
    <_>
      <maxWeakCount>9</maxWeakCount>
      <stageThreshold>-7.6401430368423462e-01</stageThreshold>
      <weakClassifiers>
        <_>
          <internalNodes>
            0 -1 78 6.2565580010414124e-02</internalNodes>
          <leafValues>
            -3.9708939194679260e-01 8.6885243654251099e-01</leafValues></_>
        <_>
          <internalNodes>
            0 -1 89 2.1387193351984024e-02</internalNodes>
          <leafValues>
            -4.7744175791740417e-01 2.5004953145980835e-01</leafValues></_>
        <_>
          <internalNodes>
            0 -1 19 4.2581092566251755e-03</internalNodes>
          <leafValues>
            -5.2677816152572632e-01 2.6952457427978516e-01</leafValues></_>
        <_>
          <internalNodes>
            0 -1 65 -1.7499912064522505e-04</internalNodes>
          <leafValues>
            4.1972330212593079e-01 -2.9791507124900818e-01</leafValues></_>
        <_>
          <internalNodes>
            0 -1 86 4.6816983376629651e-04</internalNodes>
          <leafValues>
            -4.3647781014442444e-01 3.2152271270751953e-01</leafValues></_>
        <_>
          <internalNodes>
            0 -1 64 2.2697516251355410e-03</internalNodes>
          <leafValues>
            1.7521859705448151e-01 -8.3275854587554932e-01</leafValues></_>
        <_>
          <internalNodes>
            0 -1 45 -6.1466795159503818e-05</internalNodes>
          <leafValues>
            3.2495611906051636e-01 -3.9053767919540405e-01</leafValues></_>
        <_>
          <internalNodes>
            0 -1 83 3.3995709381997585e-03</internalNodes>
          <leafValues>
            -1.8681167066097260e-01 6.9241523742675781e-01</leafValues></_>
        <_>
          <internalNodes>
            0 -1 28 -3.9016511436784640e-05</internalNodes>
          <leafValues>
            3.1969186663627625e-01 -4.2716693878173828e-01</leafValues></_></weakClassifiers></_></stages>
  <features>
    <_>
      <rects>
        <_>
          0 0 26 60 -1.</_>
        <_>
          13 0 13 60 2.</_></rects>
      <tilted>0</tilted></_>
    <_>
      <rects>
        <_>
          0 7 2 50 -1.</_>
        <_>
          1 7 1 50 2.</_></rects>
      <tilted>0</tilted></_>
    <_>
      <rects>
        <_>
          0 7 30 20 -1.</_>
        <_>
          15 7 15 20 2.</_></rects>
      <tilted>0</tilted></_>
    <_>
      <rects>
        <_>
          0 17 10 4 -1.</_>
        <_>
          0 19 10 2 2.</_></rects>
      <tilted>0</tilted></_>
    <_>
      <rects>
        <_>
          0 20 1 40 -1.</_>
        <_>
          0 40 1 20 2.</_></rects>
      <tilted>0</tilted></_>
    <_>
      <rects>
        <_>
          0 24 30 11 -1.</_>
        <_>
          10 24 10 11 3.</_></rects>
      <tilted>0</tilted></_>
    <_>
      <rects>
        <_>
          0 33 21 14 -1.</_>
        <_>
          0 40 21 7 2.</_></rects>
      <tilted>0</tilted></_>
    <_>
      <rects>
        <_>
          0 34 24 10 -1.</_>
        <_>
          0 39 24 5 2.</_></rects>
      <tilted>0</tilted></_>
    <_>
      <rects>
        <_>
          0 41 4 1 -1.</_>
        <_>
          2 41 2 1 2.</_></rects>
      <tilted>0</tilted></_>
    <_>
      <rects>
        <_>
          0 42 26 15 -1.</_>
        <_>
          0 47 26 5 3.</_></rects>
      <tilted>0</tilted></_>
    <_>
      <rects>
        <_>
          0 44 3 9 -1.</_>
        <_>
          0 47 3 3 3.</_></rects>
      <tilted>0</tilted></_>
    <_>
      <rects>
        <_>
          0 46 12 14 -1.</_>
        <_>
          0 46 6 7 2.</_>
        <_>
          6 53 6 7 2.</_></rects>
      <tilted>0</tilted></_>
    <_>
      <rects>
        <_>
          0 53 27 3 -1.</_>
        <_>
          0 54 27 1 3.</_></rects>
      <tilted>0</tilted></_>
    <_>
      <rects>
        <_>
          0 57 6 3 -1.</_>
        <_>
          0 58 6 1 3.</_></rects>
      <tilted>0</tilted></_>
    <_>
      <rects>
        <_>
          0 57 23 3 -1.</_>
        <_>
          0 58 23 1 3.</_></rects>
      <tilted>0</tilted></_>
    <_>
      <rects>
        <_>
          1 16 20 40 -1.</_>
        <_>
          11 16 10 40 2.</_></rects>
      <tilted>0</tilted></_>
    <_>
      <rects>
        <_>
          1 17 8 2 -1.</_>
        <_>
          1 18 8 1 2.</_></rects>
      <tilted>0</tilted></_>
    <_>
      <rects>
        <_>
          1 26 12 22 -1.</_>
        <_>
          1 26 6 11 2.</_>
        <_>
          7 37 6 11 2.</_></rects>
      <tilted>0</tilted></_>
    <_>
      <rects>
        <_>
          1 28 15 10 -1.</_>
        <_>
          6 28 5 10 3.</_></rects>
      <tilted>0</tilted></_>
    <_>
      <rects>
        <_>
          1 33 29 27 -1.</_>
        <_>
          1 42 29 9 3.</_></rects>
      <tilted>0</tilted></_>
    <_>
      <rects>
        <_>
          1 38 2 9 -1.</_>
        <_>
          1 41 2 3 3.</_></rects>
      <tilted>0</tilted></_>
    <_>
      <rects>
        <_>
          1 39 4 5 -1.</_>
        <_>
          3 39 2 5 2.</_></rects>
      <tilted>0</tilted></_>
    <_>
      <rects>
        <_>
          2 1 28 44 -1.</_>
        <_>
          2 23 28 22 2.</_></rects>
      <tilted>0</tilted></_>
    <_>
      <rects>
        <_>
          2 7 13 3 -1.</_>
        <_>
          2 8 13 1 3.</_></rects>
      <tilted>0</tilted></_>
    <_>
      <rects>
        <_>
          2 11 18 20 -1.</_>
        <_>
          2 11 9 10 2.</_>
        <_>
          11 21 9 10 2.</_></rects>
      <tilted>0</tilted></_>
    <_>
      <rects>
        <_>
          2 15 2 2 -1.</_>
        <_>
          2 16 2 1 2.</_></rects>
      <tilted>0</tilted></_>
    <_>
      <rects>
        <_>
          2 22 18 10 -1.</_>
        <_>
          8 22 6 10 3.</_></rects>
      <tilted>0</tilted></_>
    <_>
      <rects>
        <_>
          2 26 18 5 -1.</_>
        <_>
          8 26 6 5 3.</_></rects>
      <tilted>0</tilted></_>
    <_>
      <rects>
        <_>
          2 31 2 12 -1.</_>
        <_>
          2 35 2 4 3.</_></rects>
      <tilted>0</tilted></_>
    <_>
      <rects>
        <_>
          2 36 6 18 -1.</_>
        <_>
          5 36 3 18 2.</_></rects>
      <tilted>0</tilted></_>
    <_>
      <rects>
        <_>
          2 45 28 6 -1.</_>
        <_>
          2 47 28 2 3.</_></rects>
      <tilted>0</tilted></_>
    <_>
      <rects>
        <_>
          2 53 23 3 -1.</_>
        <_>
          2 54 23 1 3.</_></rects>
      <tilted>0</tilted></_>
    <_>
      <rects>
        <_>
          2 58 20 2 -1.</_>
        <_>
          2 58 10 1 2.</_>
        <_>
          12 59 10 1 2.</_></rects>
      <tilted>0</tilted></_>
    <_>
      <rects>
        <_>
          3 5 4 20 -1.</_>
        <_>
          3 5 2 10 2.</_>
        <_>
          5 15 2 10 2.</_></rects>
      <tilted>0</tilted></_>
    <_>
      <rects>
        <_>
          3 43 16 4 -1.</_>
        <_>
          3 45 16 2 2.</_></rects>
      <tilted>0</tilted></_>
    <_>
      <rects>
        <_>
          3 55 12 5 -1.</_>
        <_>
          7 55 4 5 3.</_></rects>
      <tilted>0</tilted></_>
    <_>
      <rects>
        <_>
          4 16 18 38 -1.</_>
        <_>
          13 16 9 38 2.</_></rects>
      <tilted>0</tilted></_>
    <_>
      <rects>
        <_>
          4 19 8 6 -1.</_>
        <_>
          4 22 8 3 2.</_></rects>
      <tilted>0</tilted></_>
    <_>
      <rects>
        <_>
          4 22 18 18 -1.</_>
        <_>
          4 22 9 9 2.</_>
        <_>
          13 31 9 9 2.</_></rects>
      <tilted>0</tilted></_>
    <_>
      <rects>
        <_>
          4 30 19 24 -1.</_>
        <_>
          4 42 19 12 2.</_></rects>
      <tilted>0</tilted></_>
    <_>
      <rects>
        <_>
          4 43 25 6 -1.</_>
        <_>
          4 45 25 2 3.</_></rects>
      <tilted>0</tilted></_>
    <_>
      <rects>
        <_>
          5 0 2 19 -1.</_>
        <_>
          6 0 1 19 2.</_></rects>
      <tilted>0</tilted></_>
    <_>
      <rects>
        <_>
          5 2 24 36 -1.</_>
        <_>
          5 20 24 18 2.</_></rects>
      <tilted>0</tilted></_>
    <_>
      <rects>
        <_>
          5 56 15 3 -1.</_>
        <_>
          10 56 5 3 3.</_></rects>
      <tilted>0</tilted></_>
    <_>
      <rects>
        <_>
          6 8 3 6 -1.</_>
        <_>
          6 11 3 3 2.</_></rects>
      <tilted>0</tilted></_>
    <_>
      <rects>
        <_>
          7 8 12 1 -1.</_>
        <_>
          11 8 4 1 3.</_></rects>
      <tilted>0</tilted></_>
    <_>
      <rects>
        <_>
          7 10 13 30 -1.</_>
        <_>
          7 20 13 10 3.</_></rects>
      <tilted>0</tilted></_>
    <_>
      <rects>
        <_>
          7 43 23 6 -1.</_>
        <_>
          7 45 23 2 3.</_></rects>
      <tilted>0</tilted></_>
    <_>
      <rects>
        <_>
          7 48 19 12 -1.</_>
        <_>
          7 52 19 4 3.</_></rects>
      <tilted>0</tilted></_>
    <_>
      <rects>
        <_>
          8 11 12 18 -1.</_>
        <_>
          8 17 12 6 3.</_></rects>
      <tilted>0</tilted></_>
    <_>
      <rects>
        <_>
          8 13 4 2 -1.</_>
        <_>
          8 14 4 1 2.</_></rects>
      <tilted>0</tilted></_>
    <_>
      <rects>
        <_>
          8 23 12 5 -1.</_>
        <_>
          12 23 4 5 3.</_></rects>
      <tilted>0</tilted></_>
    <_>
      <rects>
        <_>
          8 42 15 16 -1.</_>
        <_>
          13 42 5 16 3.</_></rects>
      <tilted>0</tilted></_>
    <_>
      <rects>
        <_>
          9 16 12 22 -1.</_>
        <_>
          13 16 4 22 3.</_></rects>
      <tilted>0</tilted></_>
    <_>
      <rects>
        <_>
          9 19 13 24 -1.</_>
        <_>
          9 27 13 8 3.</_></rects>
      <tilted>0</tilted></_>
    <_>
      <rects>
        <_>
          9 21 13 18 -1.</_>
        <_>
          9 27 13 6 3.</_></rects>
      <tilted>0</tilted></_>
    <_>
      <rects>
        <_>
          9 44 6 10 -1.</_>
        <_>
          9 49 6 5 2.</_></rects>
      <tilted>0</tilted></_>
    <_>
      <rects>
        <_>
          9 56 18 3 -1.</_>
        <_>
          9 57 18 1 3.</_></rects>
      <tilted>0</tilted></_>
    <_>
      <rects>
        <_>
          10 6 6 24 -1.</_>
        <_>
          10 14 6 8 3.</_></rects>
      <tilted>0</tilted></_>
    <_>
      <rects>
        <_>
          10 21 11 12 -1.</_>
        <_>
          10 27 11 6 2.</_></rects>
      <tilted>0</tilted></_>
    <_>
      <rects>
        <_>
          10 22 15 11 -1.</_>
        <_>
          15 22 5 11 3.</_></rects>
      <tilted>0</tilted></_>
    <_>
      <rects>
        <_>
          10 25 16 22 -1.</_>
        <_>
          10 25 8 11 2.</_>
        <_>
          18 36 8 11 2.</_></rects>
      <tilted>0</tilted></_>
    <_>
      <rects>
        <_>
          10 46 17 3 -1.</_>
        <_>
          10 47 17 1 3.</_></rects>
      <tilted>0</tilted></_>
    <_>
      <rects>
        <_>
          10 55 7 3 -1.</_>
        <_>
          10 56 7 1 3.</_></rects>
      <tilted>0</tilted></_>
    <_>
      <rects>
        <_>
          11 46 9 9 -1.</_>
        <_>
          14 46 3 9 3.</_></rects>
      <tilted>0</tilted></_>
    <_>
      <rects>
        <_>
          12 9 2 4 -1.</_>
        <_>
          12 11 2 2 2.</_></rects>
      <tilted>0</tilted></_>
    <_>
      <rects>
        <_>
          12 17 14 12 -1.</_>
        <_>
          12 17 7 6 2.</_>
        <_>
          19 23 7 6 2.</_></rects>
      <tilted>0</tilted></_>
    <_>
      <rects>
        <_>
          12 18 14 8 -1.</_>
        <_>
          12 18 7 4 2.</_>
        <_>
          19 22 7 4 2.</_></rects>
      <tilted>0</tilted></_>
    <_>
      <rects>
        <_>
          12 20 18 22 -1.</_>
        <_>
          12 20 9 11 2.</_>
        <_>
          21 31 9 11 2.</_></rects>
      <tilted>0</tilted></_>
    <_>
      <rects>
        <_>
          13 12 2 2 -1.</_>
        <_>
          13 13 2 1 2.</_></rects>
      <tilted>0</tilted></_>
    <_>
      <rects>
        <_>
          13 15 9 18 -1.</_>
        <_>
          16 15 3 18 3.</_></rects>
      <tilted>0</tilted></_>
    <_>
      <rects>
        <_>
          13 17 9 43 -1.</_>
        <_>
          16 17 3 43 3.</_></rects>
      <tilted>0</tilted></_>
    <_>
      <rects>
        <_>
          13 29 14 10 -1.</_>
        <_>
          13 29 7 5 2.</_>
        <_>
          20 34 7 5 2.</_></rects>
      <tilted>0</tilted></_>
    <_>
      <rects>
        <_>
          13 58 15 1 -1.</_>
        <_>
          18 58 5 1 3.</_></rects>
      <tilted>0</tilted></_>
    <_>
      <rects>
        <_>
          14 15 4 8 -1.</_>
        <_>
          14 15 2 4 2.</_>
        <_>
          16 19 2 4 2.</_></rects>
      <tilted>0</tilted></_>
    <_>
      <rects>
        <_>
          14 15 6 24 -1.</_>
        <_>
          14 23 6 8 3.</_></rects>
      <tilted>0</tilted></_>
    <_>
      <rects>
        <_>
          14 19 14 28 -1.</_>
        <_>
          14 19 7 14 2.</_>
        <_>
          21 33 7 14 2.</_></rects>
      <tilted>0</tilted></_>
    <_>
      <rects>
        <_>
          14 22 4 13 -1.</_>
        <_>
          16 22 2 13 2.</_></rects>
      <tilted>0</tilted></_>
    <_>
      <rects>
        <_>
          15 14 5 24 -1.</_>
        <_>
          15 22 5 8 3.</_></rects>
      <tilted>0</tilted></_>
    <_>
      <rects>
        <_>
          15 20 4 28 -1.</_>
        <_>
          15 34 4 14 2.</_></rects>
      <tilted>0</tilted></_>
    <_>
      <rects>
        <_>
          15 21 8 30 -1.</_>
        <_>
          15 31 8 10 3.</_></rects>
      <tilted>0</tilted></_>
    <_>
      <rects>
        <_>
          15 22 14 18 -1.</_>
        <_>
          15 22 7 9 2.</_>
        <_>
          22 31 7 9 2.</_></rects>
      <tilted>0</tilted></_>
    <_>
      <rects>
        <_>
          15 23 10 22 -1.</_>
        <_>
          15 23 5 11 2.</_>
        <_>
          20 34 5 11 2.</_></rects>
      <tilted>0</tilted></_>
    <_>
      <rects>
        <_>
          16 10 2 39 -1.</_>
        <_>
          16 23 2 13 3.</_></rects>
      <tilted>0</tilted></_>
    <_>
      <rects>
        <_>
          16 31 14 5 -1.</_>
        <_>
          23 31 7 5 2.</_></rects>
      <tilted>0</tilted></_>
    <_>
      <rects>
        <_>
          17 4 2 48 -1.</_>
        <_>
          17 20 2 16 3.</_></rects>
      <tilted>0</tilted></_>
    <_>
      <rects>
        <_>
          17 27 12 10 -1.</_>
        <_>
          21 27 4 10 3.</_></rects>
      <tilted>0</tilted></_>
    <_>
      <rects>
        <_>
          18 0 12 2 -1.</_>
        <_>
          18 1 12 1 2.</_></rects>
      <tilted>0</tilted></_>
    <_>
      <rects>
        <_>
          19 0 8 32 -1.</_>
        <_>
          19 0 4 16 2.</_>
        <_>
          23 16 4 16 2.</_></rects>
      <tilted>0</tilted></_>
    <_>
      <rects>
        <_>
          20 16 10 41 -1.</_>
        <_>
          25 16 5 41 2.</_></rects>
      <tilted>0</tilted></_>
    <_>
      <rects>
        <_>
          20 18 10 35 -1.</_>
        <_>
          25 18 5 35 2.</_></rects>
      <tilted>0</tilted></_>
    <_>
      <rects>
        <_>
          21 0 3 2 -1.</_>
        <_>
          21 1 3 1 2.</_></rects>
      <tilted>0</tilted></_>
    <_>
      <rects>
        <_>
          21 2 6 8 -1.</_>
        <_>
          21 6 6 4 2.</_></rects>
      <tilted>0</tilted></_>
    <_>
      <rects>
        <_>
          22 5 7 6 -1.</_>
        <_>
          22 7 7 2 3.</_></rects>
      <tilted>0</tilted></_>
    <_>
      <rects>
        <_>
          23 23 3 33 -1.</_>
        <_>
          24 23 1 33 3.</_></rects>
      <tilted>0</tilted></_>
    <_>
      <rects>
        <_>
          23 39 3 20 -1.</_>
        <_>
          24 39 1 20 3.</_></rects>
      <tilted>0</tilted></_>
    <_>
      <rects>
        <_>
          25 18 2 41 -1.</_>
        <_>
          26 18 1 41 2.</_></rects>
      <tilted>0</tilted></_>
    <_>
      <rects>
        <_>
          26 17 3 42 -1.</_>
        <_>
          27 17 1 42 3.</_></rects>
      <tilted>0</tilted></_>
    <_>
      <rects>
        <_>
          27 14 2 42 -1.</_>
        <_>
          28 14 1 42 2.</_></rects>
      <tilted>0</tilted></_>
    <_>
      <rects>
        <_>
          27 21 3 8 -1.</_>
        <_>
          28 21 1 8 3.</_></rects>
      <tilted>0</tilted></_>
    <_>
      <rects>
        <_>
          27 28 3 22 -1.</_>
        <_>
          28 28 1 22 3.</_></rects>
      <tilted>0</tilted></_>
    <_>
      <rects>
        <_>
          27 39 3 21 -1.</_>
        <_>
          28 39 1 21 3.</_></rects>
      <tilted>0</tilted></_>
    <_>
      <rects>
        <_>
          28 8 1 28 -1.</_>
        <_>
          28 22 1 14 2.</_></rects>
      <tilted>0</tilted></_></features></cascade>
</opencv_storage>
